digraph Tree {
node [shape=box, style="filled, rounded", color="black", fontname=helvetica] ;
edge [fontname=helvetica] ;
0 [label=<X<SUB>100</SUB> &le; 0.033<br/>gini = 0.5<br/>samples = 724<br/>value = [525.477, 553.277]>, fillcolor="#f5fafe"] ;
1 [label=<X<SUB>100</SUB> &le; -0.126<br/>gini = 0.344<br/>samples = 227<br/>value = [500.455, 141.652]>, fillcolor="#eca571"] ;
0 -> 1 [labeldistance=2.5, labelangle=45, headlabel="True"] ;
2 [label=<X<SUB>100</SUB> &le; -0.156<br/>gini = 0.041<br/>samples = 44<br/>value = [285.259, 6.11]>, fillcolor="#e6843d"] ;
1 -> 2 ;
3 [label=<X<SUB>100</SUB> &le; -0.172<br/>gini = 0.009<br/>samples = 34<br/>value = [250.227, 1.111]>, fillcolor="#e5823a"] ;
2 -> 3 ;
4 [label=<gini = 0.005<br/>samples = 28<br/>value = [220.2, 0.555]>, fillcolor="#e58139"] ;
3 -> 4 ;
5 [label=<gini = 0.036<br/>samples = 6<br/>value = [30.027, 0.555]>, fillcolor="#e5833d"] ;
3 -> 5 ;
6 [label=<X<SUB>100</SUB> &le; -0.141<br/>gini = 0.219<br/>samples = 10<br/>value = [35.032, 4.999]>, fillcolor="#e99355"] ;
2 -> 6 ;
7 [label=<gini = 0.498<br/>samples = 5<br/>value = [5.005, 4.444]>, fillcolor="#fcf1e9"] ;
6 -> 7 ;
8 [label=<gini = 0.036<br/>samples = 5<br/>value = [30.027, 0.555]>, fillcolor="#e5833d"] ;
6 -> 8 ;
9 [label=<X<SUB>62</SUB> &le; 1.0<br/>gini = 0.474<br/>samples = 183<br/>value = [215.195, 135.542]>, fillcolor="#f5d0b6"] ;
1 -> 9 ;
10 [label=<X<SUB>61</SUB> &le; 0.5<br/>gini = 0.458<br/>samples = 167<br/>value = [215.195, 118.877]>, fillcolor="#f3c7a6"] ;
9 -> 10 ;
11 [label=<gini = 0.442<br/>samples = 157<br/>value = [215.195, 106.1]>, fillcolor="#f2bf9b"] ;
10 -> 11 ;
12 [label=<gini = 0.0<br/>samples = 10<br/>value = [0.0, 12.776]>, fillcolor="#399de5"] ;
10 -> 12 ;
13 [label=<gini = -0.0<br/>samples = 16<br/>value = [0.0, 16.665]>, fillcolor="#399de5"] ;
9 -> 13 ;
14 [label=<X<SUB>37</SUB> &le; 1.5<br/>gini = 0.108<br/>samples = 497<br/>value = [25.023, 411.625]>, fillcolor="#45a3e7"] ;
0 -> 14 [labeldistance=2.5, labelangle=-45, headlabel="False"] ;
15 [label=<X<SUB>38</SUB> &le; 1.5<br/>gini = 0.026<br/>samples = 462<br/>value = [5.005, 381.073]>, fillcolor="#3c9ee5"] ;
14 -> 15 ;
16 [label=<gini = 0.0<br/>samples = 435<br/>value = [0.0, 361.075]>, fillcolor="#399de5"] ;
15 -> 16 ;
17 [label=<X<SUB>100</SUB> &le; 0.075<br/>gini = 0.32<br/>samples = 27<br/>value = [5.005, 19.998]>, fillcolor="#6bb6ec"] ;
15 -> 17 ;
18 [label=<gini = 0.297<br/>samples = 2<br/>value = [5.005, 1.111]>, fillcolor="#eb9d65"] ;
17 -> 18 ;
19 [label=<gini = 0.0<br/>samples = 25<br/>value = [0.0, 18.887]>, fillcolor="#399de5"] ;
17 -> 19 ;
20 [label=<X<SUB>100</SUB> &le; 0.079<br/>gini = 0.478<br/>samples = 35<br/>value = [20.018, 30.552]>, fillcolor="#bbddf6"] ;
14 -> 20 ;
21 [label=<X<SUB>72</SUB> &le; 1.0<br/>gini = 0.375<br/>samples = 9<br/>value = [20.018, 6.666]>, fillcolor="#eeab7b"] ;
20 -> 21 ;
22 [label=<gini = 0.18<br/>samples = 4<br/>value = [20.018, 2.222]>, fillcolor="#e88f4f"] ;
21 -> 22 ;
23 [label=<gini = -0.0<br/>samples = 5<br/>value = [0.0, 4.444]>, fillcolor="#399de5"] ;
21 -> 23 ;
24 [label=<gini = -0.0<br/>samples = 26<br/>value = [0.0, 23.886]>, fillcolor="#399de5"] ;
20 -> 24 ;
}